digraph Tree {
node [shape=box, style="filled, rounded", color="black", fontname=helvetica] ;
edge [fontname=helvetica] ;
0 [label="X[16] <= 0.0\ngini = 0.5\nsamples = 123\nvalue = [109, 90]", fillcolor="#fae9dc"] ;
1 [label="X[23] <= 2.49\ngini = 0.2\nsamples = 25\nvalue = [32, 4]", fillcolor="#e89152"] ;
0 -> 1 [labeldistance=2.5, labelangle=45, headlabel="True"] ;
2 [label="X[28] <= 0.83\ngini = 0.38\nsamples = 2\nvalue = [1, 3]", fillcolor="#7bbeee"] ;
1 -> 2 ;
3 [label="gini = 0.0\nsamples = 1\nvalue = [1, 0]", fillcolor="#e58139"] ;
2 -> 3 ;
4 [label="gini = 0.0\nsamples = 1\nvalue = [0, 3]", fillcolor="#399de5"] ;
2 -> 4 ;
5 [label="X[6] <= 7.31\ngini = 0.06\nsamples = 23\nvalue = [31, 1]", fillcolor="#e6853f"] ;
1 -> 5 ;
6 [label="gini = 0.0\nsamples = 16\nvalue = [24, 0]", fillcolor="#e58139"] ;
5 -> 6 ;
7 [label="gini = 0.22\nsamples = 7\nvalue = [7, 1]", fillcolor="#e99355"] ;
5 -> 7 ;
8 [label="X[5] <= 9.4\ngini = 0.5\nsamples = 98\nvalue = [77, 86]", fillcolor="#eaf5fc"] ;
0 -> 8 [labeldistance=2.5, labelangle=-45, headlabel="False"] ;
9 [label="X[18] <= 0.0\ngini = 0.49\nsamples = 95\nvalue = [68, 86]", fillcolor="#d6eafa"] ;
8 -> 9 ;
10 [label="gini = 0.46\nsamples = 35\nvalue = [36, 20]", fillcolor="#f3c7a7"] ;
9 -> 10 ;
11 [label="gini = 0.44\nsamples = 60\nvalue = [32, 66]", fillcolor="#99cdf2"] ;
9 -> 11 ;
12 [label="gini = 0.0\nsamples = 3\nvalue = [9, 0]", fillcolor="#e58139"] ;
8 -> 12 ;
}